<?xml version="1.0"?>
<MethodSetup Method="MLP::MLP">
  <GeneralInfo>
    <Info name="TMVA Release" value="4.2.1 [262657]"/>
    <Info name="ROOT Release" value="6.18/04 [397828]"/>
    <Info name="Creator" value="chdlalsnr"/>
    <Info name="Date" value="Thu Sep 14 14:49:50 2023"/>
    <Info name="Host" value="Linux cmsbuild78.cern.ch 3.10.0-1062.4.1.el7.x86_64 #1 SMP Fri Oct 18 17:15:30 UTC 2019 x86_64 x86_64 x86_64 GNU/Linux"/>
    <Info name="Dir" value="/cms/ldap_home/chdlalsnr/HH/CMSSW_11_0_0/src/HHAnalysis/HH/python/8_TMVA_BDT_Comparison"/>
    <Info name="Training events" value="9000"/>
    <Info name="TrainingTime" value="1.39942246e+02"/>
    <Info name="AnalysisType" value="Classification"/>
  </GeneralInfo>
  <Options>
    <Option name="NCycles" modified="Yes">600</Option>
    <Option name="HiddenLayers" modified="Yes">N+5</Option>
    <Option name="NeuronType" modified="Yes">tanh</Option>
    <Option name="RandomSeed" modified="No">1</Option>
    <Option name="EstimatorType" modified="No">CE</Option>
    <Option name="NeuronInputType" modified="No">sum</Option>
    <Option name="V" modified="Yes">False</Option>
    <Option name="VerbosityLevel" modified="No">Default</Option>
    <Option name="VarTransform" modified="Yes">N</Option>
    <Option name="H" modified="Yes">True</Option>
    <Option name="CreateMVAPdfs" modified="No">False</Option>
    <Option name="IgnoreNegWeightsInTraining" modified="No">False</Option>
    <Option name="TrainingMethod" modified="No">BP</Option>
    <Option name="LearningRate" modified="No">2.000000e-02</Option>
    <Option name="DecayRate" modified="No">1.000000e-02</Option>
    <Option name="TestRate" modified="Yes">5</Option>
    <Option name="EpochMonitoring" modified="No">False</Option>
    <Option name="Sampling" modified="No">1.000000e+00</Option>
    <Option name="SamplingEpoch" modified="No">1.000000e+00</Option>
    <Option name="SamplingImportance" modified="No">1.000000e+00</Option>
    <Option name="SamplingTraining" modified="No">True</Option>
    <Option name="SamplingTesting" modified="No">False</Option>
    <Option name="ResetStep" modified="No">50</Option>
    <Option name="Tau" modified="No">3.000000e+00</Option>
    <Option name="BPMode" modified="No">sequential</Option>
    <Option name="BatchSize" modified="No">-1</Option>
    <Option name="ConvergenceImprove" modified="No">1.000000e-30</Option>
    <Option name="ConvergenceTests" modified="No">-1</Option>
    <Option name="UseRegulator" modified="Yes">False</Option>
    <Option name="UpdateLimit" modified="No">10000</Option>
    <Option name="CalculateErrors" modified="No">False</Option>
    <Option name="WeightRange" modified="No">1.000000e+00</Option>
  </Options>
  <Variables NVar="28">
    <Variable VarIndex="0" Expression="jet1_mass" Label="jet1_mass" Title="jet1_mass" Unit="" Internal="jet1_mass" Type="F" Min="3.11914062e+00" Max="1.26375000e+02"/>
    <Variable VarIndex="1" Expression="jet1_pt" Label="jet1_pt" Title="jet1_pt" Unit="" Internal="jet1_pt" Type="F" Min="2.67224331e+01" Max="1.56174927e+03"/>
    <Variable VarIndex="2" Expression="jet1_eta" Label="jet1_eta" Title="jet1_eta" Unit="" Internal="jet1_eta" Type="F" Min="-2.39013672e+00" Max="2.39941406e+00"/>
    <Variable VarIndex="3" Expression="jet1_phi" Label="jet1_phi" Title="jet1_phi" Unit="" Internal="jet1_phi" Type="F" Min="-3.14111328e+00" Max="3.14013672e+00"/>
    <Variable VarIndex="4" Expression="jet2_mass" Label="jet2_mass" Title="jet2_mass" Unit="" Internal="jet2_mass" Type="F" Min="2.08789062e+00" Max="1.52125000e+02"/>
    <Variable VarIndex="5" Expression="jet2_pt" Label="jet2_pt" Title="jet2_pt" Unit="" Internal="jet2_pt" Type="F" Min="2.50000935e+01" Max="1.52687744e+03"/>
    <Variable VarIndex="6" Expression="jet2_eta" Label="jet2_eta" Title="jet2_eta" Unit="" Internal="jet2_eta" Type="F" Min="-2.39990234e+00" Max="2.39941406e+00"/>
    <Variable VarIndex="7" Expression="jet2_phi" Label="jet2_phi" Title="jet2_phi" Unit="" Internal="jet2_phi" Type="F" Min="-3.14160156e+00" Max="3.13818359e+00"/>
    <Variable VarIndex="8" Expression="lep1_pt" Label="lep1_pt" Title="lep1_pt" Unit="" Internal="lep1_pt" Type="F" Min="2.50052738e+01" Max="4.43069519e+02"/>
    <Variable VarIndex="9" Expression="lep1_eta" Label="lep1_eta" Title="lep1_eta" Unit="" Internal="lep1_eta" Type="F" Min="-2.39697266e+00" Max="2.39990234e+00"/>
    <Variable VarIndex="10" Expression="lep1_phi" Label="lep1_phi" Title="lep1_phi" Unit="" Internal="lep1_phi" Type="F" Min="-3.14062500e+00" Max="3.14160156e+00"/>
    <Variable VarIndex="11" Expression="lep2_pt" Label="lep2_pt" Title="lep2_pt" Unit="" Internal="lep2_pt" Type="F" Min="1.50077467e+01" Max="2.76632202e+02"/>
    <Variable VarIndex="12" Expression="lep2_eta" Label="lep2_eta" Title="lep2_eta" Unit="" Internal="lep2_eta" Type="F" Min="-2.39453125e+00" Max="2.39697266e+00"/>
    <Variable VarIndex="13" Expression="lep2_phi" Label="lep2_phi" Title="lep2_phi" Unit="" Internal="lep2_phi" Type="F" Min="-3.14111328e+00" Max="3.14111328e+00"/>
    <Variable VarIndex="14" Expression="dr_ll" Label="dr_ll" Title="dr_ll" Unit="" Internal="dr_ll" Type="F" Min="4.04793948e-01" Max="6.72084236e+00"/>
    <Variable VarIndex="15" Expression="dr_jj" Label="dr_jj" Title="dr_jj" Unit="" Internal="dr_jj" Type="F" Min="6.39607161e-02" Max="6.68530655e+00"/>
    <Variable VarIndex="16" Expression="met_pt" Label="met_pt" Title="met_pt" Unit="" Internal="met_pt" Type="F" Min="3.10830951e-01" Max="2.19604156e+02"/>
    <Variable VarIndex="17" Expression="met_phi" Label="met_phi" Title="met_phi" Unit="" Internal="met_phi" Type="F" Min="-3.14013672e+00" Max="3.14160156e+00"/>
    <Variable VarIndex="18" Expression="h1_mass" Label="h1_mass" Title="h1_mass" Unit="" Internal="h1_mass" Type="F" Min="1.97264080e+01" Max="1.12953198e+03"/>
    <Variable VarIndex="19" Expression="h1_pt" Label="h1_pt" Title="h1_pt" Unit="" Internal="h1_pt" Type="F" Min="9.10748124e-01" Max="6.75005920e+02"/>
    <Variable VarIndex="20" Expression="h1_eta" Label="h1_eta" Title="h1_eta" Unit="" Internal="h1_eta" Type="F" Min="-5.44565248e+00" Max="5.00691748e+00"/>
    <Variable VarIndex="21" Expression="h1_phi" Label="h1_phi" Title="h1_phi" Unit="" Internal="h1_phi" Type="F" Min="-3.14041924e+00" Max="3.14082289e+00"/>
    <Variable VarIndex="22" Expression="h2_mass" Label="h2_mass" Title="h2_mass" Unit="" Internal="h2_mass" Type="F" Min="1.79722900e+01" Max="3.53242261e+03"/>
    <Variable VarIndex="23" Expression="h2_pt" Label="h2_pt" Title="h2_pt" Unit="" Internal="h2_pt" Type="F" Min="1.20342350e+00" Max="9.40296143e+02"/>
    <Variable VarIndex="24" Expression="h2_eta" Label="h2_eta" Title="h2_eta" Unit="" Internal="h2_eta" Type="F" Min="-5.84604311e+00" Max="5.49669075e+00"/>
    <Variable VarIndex="25" Expression="h2_phi" Label="h2_phi" Title="h2_phi" Unit="" Internal="h2_phi" Type="F" Min="-3.14129019e+00" Max="3.13980174e+00"/>
    <Variable VarIndex="26" Expression="higgsness" Label="higgsness" Title="higgsness" Unit="" Internal="higgsness" Type="F" Min="3.08550149e-01" Max="2.41786680e+07"/>
    <Variable VarIndex="27" Expression="topness" Label="topness" Title="topness" Unit="" Internal="topness" Type="F" Min="4.60596514e+00" Max="4.90506719e+05"/>
  </Variables>
  <Spectators NSpec="0"/>
  <Classes NClass="2">
    <Class Name="Signal" Index="0"/>
    <Class Name="Background" Index="1"/>
  </Classes>
  <Transformations NTransformations="1">
    <Transform Name="Normalize">
      <Selection>
        <Input NInputs="28">
          <Input Type="Variable" Label="jet1_mass" Expression="jet1_mass"/>
          <Input Type="Variable" Label="jet1_pt" Expression="jet1_pt"/>
          <Input Type="Variable" Label="jet1_eta" Expression="jet1_eta"/>
          <Input Type="Variable" Label="jet1_phi" Expression="jet1_phi"/>
          <Input Type="Variable" Label="jet2_mass" Expression="jet2_mass"/>
          <Input Type="Variable" Label="jet2_pt" Expression="jet2_pt"/>
          <Input Type="Variable" Label="jet2_eta" Expression="jet2_eta"/>
          <Input Type="Variable" Label="jet2_phi" Expression="jet2_phi"/>
          <Input Type="Variable" Label="lep1_pt" Expression="lep1_pt"/>
          <Input Type="Variable" Label="lep1_eta" Expression="lep1_eta"/>
          <Input Type="Variable" Label="lep1_phi" Expression="lep1_phi"/>
          <Input Type="Variable" Label="lep2_pt" Expression="lep2_pt"/>
          <Input Type="Variable" Label="lep2_eta" Expression="lep2_eta"/>
          <Input Type="Variable" Label="lep2_phi" Expression="lep2_phi"/>
          <Input Type="Variable" Label="dr_ll" Expression="dr_ll"/>
          <Input Type="Variable" Label="dr_jj" Expression="dr_jj"/>
          <Input Type="Variable" Label="met_pt" Expression="met_pt"/>
          <Input Type="Variable" Label="met_phi" Expression="met_phi"/>
          <Input Type="Variable" Label="h1_mass" Expression="h1_mass"/>
          <Input Type="Variable" Label="h1_pt" Expression="h1_pt"/>
          <Input Type="Variable" Label="h1_eta" Expression="h1_eta"/>
          <Input Type="Variable" Label="h1_phi" Expression="h1_phi"/>
          <Input Type="Variable" Label="h2_mass" Expression="h2_mass"/>
          <Input Type="Variable" Label="h2_pt" Expression="h2_pt"/>
          <Input Type="Variable" Label="h2_eta" Expression="h2_eta"/>
          <Input Type="Variable" Label="h2_phi" Expression="h2_phi"/>
          <Input Type="Variable" Label="higgsness" Expression="higgsness"/>
          <Input Type="Variable" Label="topness" Expression="topness"/>
        </Input>
        <Output NOutputs="28">
          <Output Type="Variable" Label="jet1_mass" Expression="jet1_mass"/>
          <Output Type="Variable" Label="jet1_pt" Expression="jet1_pt"/>
          <Output Type="Variable" Label="jet1_eta" Expression="jet1_eta"/>
          <Output Type="Variable" Label="jet1_phi" Expression="jet1_phi"/>
          <Output Type="Variable" Label="jet2_mass" Expression="jet2_mass"/>
          <Output Type="Variable" Label="jet2_pt" Expression="jet2_pt"/>
          <Output Type="Variable" Label="jet2_eta" Expression="jet2_eta"/>
          <Output Type="Variable" Label="jet2_phi" Expression="jet2_phi"/>
          <Output Type="Variable" Label="lep1_pt" Expression="lep1_pt"/>
          <Output Type="Variable" Label="lep1_eta" Expression="lep1_eta"/>
          <Output Type="Variable" Label="lep1_phi" Expression="lep1_phi"/>
          <Output Type="Variable" Label="lep2_pt" Expression="lep2_pt"/>
          <Output Type="Variable" Label="lep2_eta" Expression="lep2_eta"/>
          <Output Type="Variable" Label="lep2_phi" Expression="lep2_phi"/>
          <Output Type="Variable" Label="dr_ll" Expression="dr_ll"/>
          <Output Type="Variable" Label="dr_jj" Expression="dr_jj"/>
          <Output Type="Variable" Label="met_pt" Expression="met_pt"/>
          <Output Type="Variable" Label="met_phi" Expression="met_phi"/>
          <Output Type="Variable" Label="h1_mass" Expression="h1_mass"/>
          <Output Type="Variable" Label="h1_pt" Expression="h1_pt"/>
          <Output Type="Variable" Label="h1_eta" Expression="h1_eta"/>
          <Output Type="Variable" Label="h1_phi" Expression="h1_phi"/>
          <Output Type="Variable" Label="h2_mass" Expression="h2_mass"/>
          <Output Type="Variable" Label="h2_pt" Expression="h2_pt"/>
          <Output Type="Variable" Label="h2_eta" Expression="h2_eta"/>
          <Output Type="Variable" Label="h2_phi" Expression="h2_phi"/>
          <Output Type="Variable" Label="higgsness" Expression="higgsness"/>
          <Output Type="Variable" Label="topness" Expression="topness"/>
        </Output>
      </Selection>
      <Class ClassIndex="0">
        <Ranges>
          <Range Index="0" Min="4.0820312500000000e+00" Max="1.2637500000000000e+02"/>
          <Range Index="1" Min="2.8588106155395508e+01" Max="1.5617492675781250e+03"/>
          <Range Index="2" Min="-2.3686523437500000e+00" Max="2.3891601562500000e+00"/>
          <Range Index="3" Min="-3.1367187500000000e+00" Max="3.1401367187500000e+00"/>
          <Range Index="4" Min="2.0878906250000000e+00" Max="1.5212500000000000e+02"/>
          <Range Index="5" Min="2.5002042770385742e+01" Max="1.5268774414062500e+03"/>
          <Range Index="6" Min="-2.3950195312500000e+00" Max="2.3994140625000000e+00"/>
          <Range Index="7" Min="-3.1416015625000000e+00" Max="3.1367187500000000e+00"/>
          <Range Index="8" Min="2.5005273818969727e+01" Max="4.0346994018554688e+02"/>
          <Range Index="9" Min="-2.3959960937500000e+00" Max="2.3852539062500000e+00"/>
          <Range Index="10" Min="-3.1381835937500000e+00" Max="3.1416015625000000e+00"/>
          <Range Index="11" Min="1.5014127731323242e+01" Max="2.7663220214843750e+02"/>
          <Range Index="12" Min="-2.3945312500000000e+00" Max="2.3969726562500000e+00"/>
          <Range Index="13" Min="-3.1401367187500000e+00" Max="3.1411132812500000e+00"/>
          <Range Index="14" Min="4.0479394793510437e-01" Max="6.2607321739196777e+00"/>
          <Range Index="15" Min="6.3960716128349304e-02" Max="6.2918162345886230e+00"/>
          <Range Index="16" Min="2.0269830226898193e+00" Max="2.1951818847656250e+02"/>
          <Range Index="17" Min="-3.1401367187500000e+00" Max="3.1416015625000000e+00"/>
          <Range Index="18" Min="2.0742420196533203e+01" Max="5.1308892822265625e+02"/>
          <Range Index="19" Min="3.9148108959197998e+00" Max="6.7500592041015625e+02"/>
          <Range Index="20" Min="-2.9553852081298828e+00" Max="3.1082210540771484e+00"/>
          <Range Index="21" Min="-3.1399116516113281e+00" Max="3.1408228874206543e+00"/>
          <Range Index="22" Min="2.1385028839111328e+01" Max="3.5324226074218750e+03"/>
          <Range Index="23" Min="3.7519164085388184e+00" Max="9.4029614257812500e+02"/>
          <Range Index="24" Min="-4.5279550552368164e+00" Max="4.5816044807434082e+00"/>
          <Range Index="25" Min="-3.1401071548461914e+00" Max="3.1389176845550537e+00"/>
          <Range Index="26" Min="3.0855014920234680e-01" Max="2.2723109375000000e+04"/>
          <Range Index="27" Min="8.6840257644653320e+00" Max="3.7752853125000000e+05"/>
        </Ranges>
      </Class>
      <Class ClassIndex="1">
        <Ranges>
          <Range Index="0" Min="3.1191406250000000e+00" Max="8.1875000000000000e+01"/>
          <Range Index="1" Min="2.6722433090209961e+01" Max="4.7919476318359375e+02"/>
          <Range Index="2" Min="-2.3901367187500000e+00" Max="2.3994140625000000e+00"/>
          <Range Index="3" Min="-3.1411132812500000e+00" Max="3.1401367187500000e+00"/>
          <Range Index="4" Min="2.6640625000000000e+00" Max="5.0156250000000000e+01"/>
          <Range Index="5" Min="2.5000093460083008e+01" Max="3.3016519165039062e+02"/>
          <Range Index="6" Min="-2.3999023437500000e+00" Max="2.3969726562500000e+00"/>
          <Range Index="7" Min="-3.1401367187500000e+00" Max="3.1381835937500000e+00"/>
          <Range Index="8" Min="2.5124908447265625e+01" Max="4.4306951904296875e+02"/>
          <Range Index="9" Min="-2.3969726562500000e+00" Max="2.3999023437500000e+00"/>
          <Range Index="10" Min="-3.1406250000000000e+00" Max="3.1376953125000000e+00"/>
          <Range Index="11" Min="1.5007746696472168e+01" Max="2.1417761230468750e+02"/>
          <Range Index="12" Min="-2.3901367187500000e+00" Max="2.3906250000000000e+00"/>
          <Range Index="13" Min="-3.1411132812500000e+00" Max="3.1411132812500000e+00"/>
          <Range Index="14" Min="4.2870524525642395e-01" Max="6.7208423614501953e+00"/>
          <Range Index="15" Min="1.7439024150371552e-01" Max="6.6853065490722656e+00"/>
          <Range Index="16" Min="3.1083095073699951e-01" Max="2.1960415649414062e+02"/>
          <Range Index="17" Min="-3.1386718750000000e+00" Max="3.1411132812500000e+00"/>
          <Range Index="18" Min="1.9726408004760742e+01" Max="1.1295319824218750e+03"/>
          <Range Index="19" Min="9.1074812412261963e-01" Max="5.7062664794921875e+02"/>
          <Range Index="20" Min="-5.4456524848937988e+00" Max="5.0069174766540527e+00"/>
          <Range Index="21" Min="-3.1404192447662354e+00" Max="3.1399955749511719e+00"/>
          <Range Index="22" Min="1.7972290039062500e+01" Max="1.4762386474609375e+03"/>
          <Range Index="23" Min="1.2034235000610352e+00" Max="5.7862982177734375e+02"/>
          <Range Index="24" Min="-5.8460431098937988e+00" Max="5.4966907501220703e+00"/>
          <Range Index="25" Min="-3.1412901878356934e+00" Max="3.1398017406463623e+00"/>
          <Range Index="26" Min="1.1332997083663940e+00" Max="2.4178668000000000e+07"/>
          <Range Index="27" Min="4.6059651374816895e+00" Max="4.9050671875000000e+05"/>
        </Ranges>
      </Class>
      <Class ClassIndex="2">
        <Ranges>
          <Range Index="0" Min="3.1191406250000000e+00" Max="1.2637500000000000e+02"/>
          <Range Index="1" Min="2.6722433090209961e+01" Max="1.5617492675781250e+03"/>
          <Range Index="2" Min="-2.3901367187500000e+00" Max="2.3994140625000000e+00"/>
          <Range Index="3" Min="-3.1411132812500000e+00" Max="3.1401367187500000e+00"/>
          <Range Index="4" Min="2.0878906250000000e+00" Max="1.5212500000000000e+02"/>
          <Range Index="5" Min="2.5000093460083008e+01" Max="1.5268774414062500e+03"/>
          <Range Index="6" Min="-2.3999023437500000e+00" Max="2.3994140625000000e+00"/>
          <Range Index="7" Min="-3.1416015625000000e+00" Max="3.1381835937500000e+00"/>
          <Range Index="8" Min="2.5005273818969727e+01" Max="4.4306951904296875e+02"/>
          <Range Index="9" Min="-2.3969726562500000e+00" Max="2.3999023437500000e+00"/>
          <Range Index="10" Min="-3.1406250000000000e+00" Max="3.1416015625000000e+00"/>
          <Range Index="11" Min="1.5007746696472168e+01" Max="2.7663220214843750e+02"/>
          <Range Index="12" Min="-2.3945312500000000e+00" Max="2.3969726562500000e+00"/>
          <Range Index="13" Min="-3.1411132812500000e+00" Max="3.1411132812500000e+00"/>
          <Range Index="14" Min="4.0479394793510437e-01" Max="6.7208423614501953e+00"/>
          <Range Index="15" Min="6.3960716128349304e-02" Max="6.6853065490722656e+00"/>
          <Range Index="16" Min="3.1083095073699951e-01" Max="2.1960415649414062e+02"/>
          <Range Index="17" Min="-3.1401367187500000e+00" Max="3.1416015625000000e+00"/>
          <Range Index="18" Min="1.9726408004760742e+01" Max="1.1295319824218750e+03"/>
          <Range Index="19" Min="9.1074812412261963e-01" Max="6.7500592041015625e+02"/>
          <Range Index="20" Min="-5.4456524848937988e+00" Max="5.0069174766540527e+00"/>
          <Range Index="21" Min="-3.1404192447662354e+00" Max="3.1408228874206543e+00"/>
          <Range Index="22" Min="1.7972290039062500e+01" Max="3.5324226074218750e+03"/>
          <Range Index="23" Min="1.2034235000610352e+00" Max="9.4029614257812500e+02"/>
          <Range Index="24" Min="-5.8460431098937988e+00" Max="5.4966907501220703e+00"/>
          <Range Index="25" Min="-3.1412901878356934e+00" Max="3.1398017406463623e+00"/>
          <Range Index="26" Min="3.0855014920234680e-01" Max="2.4178668000000000e+07"/>
          <Range Index="27" Min="4.6059651374816895e+00" Max="4.9050671875000000e+05"/>
        </Ranges>
      </Class>
    </Transform>
  </Transformations>
  <MVAPdfs/>
  <Weights>
    <Layout NLayers="3">
      <Layer Index="0" NNeurons="29">
        <Neuron NSynapses="33">
          -1.6381592620921301e-02 3.0509524514971202e+00 5.3544203621658049e-01 1.6892419083222892e+00 -2.7800816407629361e+00 -1.6412251987920101e+00 -7.4983412786181547e-01 2.0469185995021912e+00 1.1560872890669587e+00 -1.2923398795014618e+00 -2.6696921179399773e+00 -7.6475278489474718e-01 8.6445419616234831e-01 -1.0482874152971046e-01 1.7517481020322172e+00 3.6560339873475972e-01 5.4451773352864130e-01 1.5435807545166831e+00 6.1787930443437535e-02 1.9011056342590367e+00 1.0233655699851231e-01 -1.1243502658651006e+00 9.3416365646858379e-01 4.8969049086771332e-01 -1.2227871929979977e+00 -1.9957147401568831e-01 2.1678046688435213e+00 -1.4163077587165704e+00 -1.4324095576964200e+00 -3.0465034472096725e-01 1.3823748289725104e+00 9.3850474870630785e-01 1.2188240545008662e+00 
        </Neuron>
        <Neuron NSynapses="33">
          1.4765876154061192e-01 1.1537573868193045e+00 -1.2279515894556545e+00 -1.0747080624162637e+00 1.5048061863705948e+00 -9.3627391904160817e-01 1.5512973203835274e+00 1.2514359995476116e+00 5.3861247413630042e-01 1.7125225361177603e+00 -1.1597893035319901e-01 -1.8151385124185011e+00 1.9160537251844564e-01 1.0059437859594689e+00 1.1484622921643333e+00 1.2903060895505656e+00 1.2820638875441381e+00 1.6976947948121277e+00 3.8511536473085572e-01 -1.2115761258421203e+00 1.2691672924979165e+00 -2.0161604391091501e+00 2.4772466994875947e-01 -1.6250753440758277e+00 -1.8526039462856256e+00 2.9597867348811664e+00 1.2530934648592142e+00 -2.9649122487671264e+00 2.5181054858808621e-01 -4.2699020465514348e-01 1.5303349933804875e+00 2.1142069047573697e+00 -3.2179000395854557e-01 
        </Neuron>
        <Neuron NSynapses="33">
          3.9503105022918136e-02 -1.7148752409923003e+00 -6.9881066816718329e-01 1.1248006957172072e+00 1.5362629390009072e-01 -1.6651275068426636e+00 7.3417054813118485e-02 1.1134668904955207e+00 5.1766755448923063e-01 6.9159549239290141e-01 -1.5807977312962332e-01 -1.5829272514719210e+00 2.9394689528913345e+00 3.2757838814908707e-01 1.0569273356640079e+00 7.0820735528393863e-01 -2.4639246473728019e-01 -1.1529540787686037e+00 -2.0070537810629876e+00 -8.3901037956769886e-01 2.3780453048927468e+00 -1.4462625662850528e+00 -1.6568909012206499e+00 -7.0989411127278590e-01 2.7169678722593935e-02 -6.5236631127551048e-01 2.0882164136899859e+00 -2.2841760009060250e+00 5.4455256876321401e-01 1.3834426384949599e+00 -6.1518199845539667e-01 -1.3136528121318933e+00 -1.9398837961197246e+00 
        </Neuron>
        <Neuron NSynapses="33">
          3.0042206199452731e-01 -1.9281134488900025e+00 5.0468492824235212e-01 -2.1034996937694722e-01 1.8618040705266374e+00 -9.9503111243043618e-01 2.5698297423744463e+00 -9.5274369596634245e-01 7.5223460460431560e-02 -1.3010702096283553e+00 1.3117369638545169e+00 -3.6712290078824883e+00 2.2153874592488276e+00 9.2993199788892011e-01 2.0972869188784440e-01 2.4203487194718037e-01 1.1501047007719112e+00 -3.9400058871975502e-01 -7.0632181937874450e-01 8.6783323424932879e-01 -8.9284692086494655e-01 -6.9221933422910342e-01 3.3246746707104718e-01 -2.9635653714472510e-01 1.7923882097089143e+00 -2.7331174449459756e+00 1.8732309529925759e+00 5.9596828792824574e-01 -1.0367918330656051e-01 -9.9104053406564208e-01 9.2076206594944809e-01 -1.2296184418222806e+00 5.9892380815312696e-01 
        </Neuron>
        <Neuron NSynapses="33">
          1.0118060308609385e+00 -1.5199243792210215e+00 -1.2479821297672264e+00 1.6368239143882186e+00 2.0877947764525735e+00 -1.5376299730347487e+00 1.0788761923078507e+00 1.6006522809514492e+00 -4.8308135102855575e-03 2.1727939208840388e-01 -2.0338476570855706e+00 -6.3051189140511121e-01 -1.4569966465053112e+00 1.3468009438910125e+00 1.0858337821405655e+00 -8.7119132921506548e-01 -1.6390384643010103e+00 2.6214164936000069e-03 -2.2841617502575293e-01 9.0827302289696599e-01 1.7028102557302736e+00 -9.7415123768256329e-01 -5.5824892609210486e-01 2.2518087134039375e-01 9.7034975213390273e-01 1.2816563506485943e+00 9.2585294447598310e-01 -2.4522270864272318e+00 -2.7484055967746404e-02 1.1123284526614257e+00 1.4010101042885283e+00 9.3573208193338109e-01 2.6617059280454269e-02 
        </Neuron>
        <Neuron NSynapses="33">
          -1.9362926979279524e-01 -8.2391271160189461e-01 6.8018782403266254e-01 -2.6697296233986623e-01 -5.1126178782713172e-01 1.9420473292969489e+00 1.7301409168485611e+00 -2.3574215807839574e-01 -5.0387485060222992e-01 2.0180684418821841e+00 -2.7393761246689636e+00 1.5659149572930486e-01 5.5548944068260586e-01 2.0762608631920754e-01 -2.0120483404853018e+00 -1.7392332200101135e+00 7.1737025366209139e-01 1.6709703074272788e+00 -1.3738416606711874e+00 1.8667490165602837e-01 -7.4464154779044367e-01 -1.9148733087495626e-01 9.1049378373089151e-01 -7.4804903772259623e-01 -5.6314345557705459e-01 -3.1314355444391201e-01 1.1330089491906370e+00 9.2996962858052590e-01 -2.2073530359283586e-02 8.5226974547088419e-01 1.4027122631818800e-01 -1.5350856134667614e+00 -1.6741965228558189e-01 
        </Neuron>
        <Neuron NSynapses="33">
          6.5820839133928055e-01 -1.1442466912241678e+00 -1.9641370695359677e+00 8.0645729848352699e-01 1.5015585066737631e+00 -2.8695068212558756e+00 9.9511156580588322e-01 7.9906600323056143e-01 -7.3883722168971899e-01 2.5364069889282520e-01 -6.8776672455756893e-01 6.9535222065785801e-02 -8.3098779097791031e-01 -4.9985788244778773e-01 3.1486794338522917e-01 1.4928318609341953e-01 1.3001471174628045e+00 7.1407970560981615e-01 -1.0839952584020109e+00 -4.5212199307037826e-01 2.7273221348198633e+00 -2.2061680792522318e+00 -1.6697230240890020e+00 -8.5370545391581631e-01 -1.3755223793438105e+00 1.3169644216550993e+00 1.3593117705589894e+00 -8.7864193012840730e-01 6.0841948003485569e-01 2.9081300075635902e-01 -1.6007529916382650e+00 -3.9294774889325002e-01 -1.0343202711099226e+00 
        </Neuron>
        <Neuron NSynapses="33">
          -5.2106208309532380e-02 1.5748719270558009e+00 5.3902115337594780e-01 -1.8780565533579594e+00 -3.9553579511020209e+00 1.1244757120673352e+00 -1.7209429497899850e-01 -1.4424320803671817e+00 4.3124870787174951e-01 -2.3382639820323829e+00 5.8395186892559951e-02 -1.6247353593875238e+00 1.4841412325282682e-01 -2.0936022961405865e+00 1.3507060694218426e-01 2.2130509033990861e-01 -2.4866762573081762e+00 1.8633711422623345e+00 -6.0395653918220826e-01 -1.5622272205810789e-01 -1.1626278742551355e+00 7.8384243834543654e-01 3.6027598304586006e-01 1.0550820545782680e-01 -1.7155288368895381e+00 -1.0576421381488446e+00 -1.5641963189709265e+00 -1.5740913873557603e+00 -4.1532374699875924e-01 -3.1571120408146330e-01 3.4164946718322148e-01 2.8891392362841408e+00 -4.1171607041049677e-02 
        </Neuron>
        <Neuron NSynapses="33">
          6.1044100164598680e-01 -1.5198843480639936e+00 -2.8826837534724254e+00 -1.9493305242238332e-01 1.2419614914822372e+00 -5.6986570035272499e-01 -1.3864069325298574e+00 8.8182172538650960e-01 2.8715178352487056e+00 -1.8896085060897430e-01 1.2298648232072005e+00 -1.0569509972696325e+00 1.6256159266216375e+00 1.3818162600446335e+00 3.1257176391945238e+00 -7.5352997169401104e-01 7.0830313355604757e-01 8.4833935772590990e-02 -2.0337201184148808e+00 -8.4136133086052123e-01 -1.1581677047572054e+00 -7.1724364545096830e-01 -2.2438926287979286e-01 2.6883492803956446e+00 -1.2451990693930060e+00 1.1416515394039526e+00 -1.4005867237873766e+00 3.0707397692937821e+00 5.6844656425710449e-01 -3.2546515135055643e-01 1.0573195105042663e+00 -1.8200965397367108e+00 1.6959888191266799e+00 
        </Neuron>
        <Neuron NSynapses="33">
          7.6869183103747585e-01 -1.8312683322388450e+00 -2.2979454997962074e+00 -2.4148290538893407e+00 -1.1093028454134735e+00 1.1176131819010098e+00 -8.7102956355640326e-01 2.6547060597722649e-01 4.9624522441447871e-01 -1.0327475867563647e+00 -8.8336449994955402e-01 -2.3398259604888288e-01 -9.1591221552849711e-02 2.1280830574920001e-01 -4.3618646577563791e-01 9.5183716094756537e-02 2.2377337692812893e+00 2.0014534977215663e+00 -5.8280985426020560e-01 2.1002997145481981e+00 -1.9207934220217271e+00 2.0689425912581290e+00 1.3209783183980996e+00 -7.5491163929128369e-01 -8.9256592693374726e-01 -4.2143815394050765e-01 -6.9959316616931211e-01 1.2448124851531268e+00 -1.5404415809760006e+00 9.6217433964467669e-01 1.4615948914233505e+00 -2.3910038943182360e-01 9.3162750711789011e-01 
        </Neuron>
        <Neuron NSynapses="33">
          -1.7072389693795782e+00 4.2070701934748722e-01 8.6137362035304740e-02 -2.1312998120843071e-01 -1.2910960553695743e+00 1.8167434810206222e+00 -6.7175520044606907e-01 1.0775058975863321e+00 -6.9713210994571828e-01 -9.0670399935523061e-01 -1.1804747724324134e+00 5.3638463645438195e-01 2.7454321561976363e+00 -1.5677946259509465e+00 7.0652491714442253e-02 -1.9919131149580613e+00 -2.3219932172223348e-01 9.5897421140036987e-01 -1.4315346489597849e-01 -7.3743793981191597e-01 4.4242188570881380e-01 1.0551325390422825e+00 -6.1402509747170819e-01 -9.9038538409186927e-01 -6.2274415240157810e-01 -2.5848718494147636e+00 -1.9918846474268641e+00 9.4440747900699096e-01 -1.4697925634682010e-01 -1.2919327630609594e+00 7.9757907505534409e-02 -1.0783681425712162e+00 1.9616260977975630e-01 
        </Neuron>
        <Neuron NSynapses="33">
          -1.2693428382073617e+00 1.5856156259029945e+00 -1.1140632659690275e+00 -1.7913834608652137e+00 -2.9074467380085656e-01 -8.1162194968977186e-01 -1.7501893211143253e+00 1.2312288191165877e+00 1.9001562594800780e+00 -1.2073821869263117e+00 2.1612944726204231e+00 1.8061049896553896e+00 -9.2208366892469729e-01 -1.9103183540724658e-01 3.4125049005967583e+00 1.8983224787938113e+00 1.5700985103105303e+00 -1.0950162834077919e+00 -2.9107254340832616e+00 -2.3756792147419357e+00 1.0341613599701216e+00 2.1200919657797468e+00 5.5801453604510642e-01 1.5375034990883194e+00 8.9609248578193390e-01 1.4798000741564163e+00 -1.7329306428189464e+00 2.6410906233229974e+00 1.6983751479640932e+00 -2.6032436717168355e+00 7.6984820741471782e-02 -1.2995420797130963e+00 2.3696352039086204e+00 
        </Neuron>
        <Neuron NSynapses="33">
          5.5448899702771270e-01 3.8570608107563686e-01 9.0134945271006739e-01 -1.9437305326866712e+00 5.8889428101991648e-01 1.9866024893961227e+00 4.1052525314817978e-01 -1.1528245212724113e+00 1.2590531015561046e-01 -1.9158144119914302e+00 -1.0736708727391007e+00 2.7783851673652316e+00 1.5418399074306934e+00 9.5368461114166125e-01 -1.0173290223599429e+00 -3.0847495691917759e-01 -2.3353166996781614e+00 -2.2042414634932426e+00 -1.1821153363253047e+00 6.1718621019304054e-01 3.2605077058322429e-01 2.2587499012285641e+00 1.4248107822044007e+00 -1.0824533020016982e+00 -1.1722458022548148e+00 -1.1940539108362473e+00 6.2504499500674338e-01 1.2940978151508278e+00 -4.9206221206725081e-01 -1.0959131824433752e+00 -9.6886897863795851e-01 -3.3897369177645702e+00 -2.8427680257539456e+00 
        </Neuron>
        <Neuron NSynapses="33">
          6.2932596835675769e-01 1.9748747819322279e+00 6.4838780377981034e-02 -6.3378792755425106e-01 -1.7449419705869842e-01 1.8068499745705229e+00 6.8277364700348853e-01 1.2782023549490125e+00 -1.2326536850152752e+00 -1.9510519689013399e+00 -7.3683199345960904e-01 1.8630617415000089e-01 -3.4784737746752774e+00 -1.6091419992473535e+00 2.2143362575616699e-01 -1.0427867320287014e+00 2.0363195962836338e+00 1.2987726753015805e+00 1.4308666599581976e-01 7.5808642211791122e-02 5.9736305876897811e-01 1.3117440115653043e+00 1.2993344165185905e-01 3.6997856885054209e-01 1.8941480422903771e+00 7.6360526261782147e-01 -3.6900384296462717e-02 -7.3930813868697409e-01 2.9534189888730705e-01 1.8625863282395334e+00 1.6789426605468614e+00 1.6309797463597360e+00 1.3308574703186973e-01 
        </Neuron>
        <Neuron NSynapses="33">
          5.8397463534179894e-01 -1.0068408414286101e+00 3.8044306190953026e-01 1.2812846504889588e+00 -4.3254353715278343e-01 -1.3027443168495960e+00 1.9292813590463476e-01 1.8013883941873956e+00 -2.1082552661197990e-01 -1.1098713790592580e+00 6.8107667366403191e-01 7.7001307153488641e-01 6.2642699448947936e-01 -1.6160645302802945e+00 1.2111602810557877e-01 -2.2027980065019270e+00 5.2642821883620838e-01 1.7285790004604944e+00 -1.1068964437062101e-01 -1.3218168737220695e+00 3.2471082305290400e-01 4.4012467692346208e-02 6.8613750915363936e-01 -5.2421815616399203e-01 -1.2025176791832433e+00 -3.8134276215007810e+00 -4.4138851745245150e-01 5.4898178434884475e-02 2.7774175218865528e-02 -2.7287419133642286e+00 -1.6465394714929042e+00 -1.9515906564012364e+00 -6.2644430584048272e-01 
        </Neuron>
        <Neuron NSynapses="33">
          -1.5643455349000421e+00 1.4643667839641541e+00 1.6452441565554124e-01 1.4388141560122076e+00 2.0854299877833074e-01 -7.5680223040998462e-01 2.0710651370722397e+00 1.8736466629847393e+00 5.2950824877444207e+00 -8.6010561753167258e-01 -2.4069725709944279e+00 3.8099758543038620e-01 -4.0190015912557868e+00 -9.0410930543645451e-01 -6.2505588974416098e+00 3.0782523754000558e-04 -2.1673864944007217e+00 6.6028301341902507e-01 5.1739407414604577e-01 9.8039201999680470e-01 5.1061795660454823e-02 -2.7286175324774251e+00 -1.8030903260914996e-01 -4.7922101113334320e-01 7.0506435316913896e-01 -7.2162433826587791e-01 -7.0875331651415230e-01 1.4003530623599119e+00 -3.8621882269595837e+00 3.3375837469162608e+00 1.3521666487087023e+00 2.1569034053617639e+00 1.1815241910033746e-01 
        </Neuron>
        <Neuron NSynapses="33">
          1.2672116784994543e+00 -2.0848467996513320e+00 -2.2396053550550254e+00 -4.9702702943206145e-01 9.7676697746177710e-01 1.7182095641801784e-01 -5.2900635823536202e-01 -5.4720477197998874e-01 -6.8323016618911570e-01 -3.7266458649278897e-02 -5.1794178807225255e-01 -1.9570814002023142e+00 5.2418353092795500e-01 2.2441678575717205e-01 1.4968670299410522e-01 -9.0005438515034064e-01 7.9842953088189006e-01 -3.3241451742702299e-01 -2.3813723714953285e+00 -7.5995610402350844e-01 -5.1899677127635255e-02 4.6699116863337546e-02 -1.1908526693703063e-01 1.8259877228776848e+00 -1.3608817422037403e+00 -7.7579841685252182e-01 -3.6197878344174977e-01 -3.0386522620006806e-01 2.6836597188938310e-01 4.7180776387561213e-01 1.1871786193922187e+00 8.7759232264861164e-01 1.6380864308594900e+00 
        </Neuron>
        <Neuron NSynapses="33">
          1.3690700958142501e+00 1.9723762018901301e+00 9.6432212978902046e-02 6.6966050355163087e-01 5.1338347741123613e-01 -2.0177795901857740e-01 -1.0168848243270676e+00 -9.7004585853376890e-01 3.5245793435100736e-01 1.6966738796579379e+00 -3.8945753585481008e-01 6.9900074762020903e-01 3.8470104275528494e-01 6.6948293789959956e-01 2.1467357979757765e-01 4.7851719465894027e-01 -7.1178528370350591e-01 -5.4967687915437280e-01 -2.6372441637251381e-01 -3.8290607563341150e-01 1.1787876401302630e+00 -1.2764037872307239e+00 -4.2255954400859490e-02 -4.7078498178766304e-01 -1.5370145380268769e+00 -8.3119699168046221e-02 1.9775207474874990e+00 4.5131779334306338e-01 2.6309679909541822e-01 -1.4332618599026186e+00 1.1314655266189253e+00 -9.5878398090500705e-01 4.3997178030905199e-01 
        </Neuron>
        <Neuron NSynapses="33">
          -1.2631810341815697e+00 -1.6375943800523740e+00 4.2202464053518458e+00 -2.6575783032996578e+00 -2.5044178589971207e+00 -1.4857025965361776e+00 3.4772928982429752e-01 1.4773694919831637e+00 2.3328016323644736e+00 -1.7454292771822710e+00 2.7870085417402808e+00 1.6949012365043068e+00 -2.9252063475798207e+00 -1.2019019445737533e+00 8.8357852745265947e-02 6.2235020456622192e-01 7.3496028829218496e-01 2.0805085899273967e+00 -2.5238758211266821e+00 -5.1142878274244803e-02 -1.6650166793746946e-01 1.6513479416719961e+00 -1.9961326816270657e+00 1.3445830138759303e+00 -8.3615638192459341e-01 -1.8314143358686612e+00 8.6534481083276771e-01 1.2185128992715646e+00 1.1662065447548242e+00 -2.0799955379462115e-01 -6.2684018839367395e-01 -1.4241671722126192e+00 -2.7429377055603319e+00 
        </Neuron>
        <Neuron NSynapses="33">
          -4.1630053882475238e-01 -4.2724806397301185e-01 2.2721827620969153e+00 4.7505185984511211e-01 -9.8674344506619382e-01 9.8184286042796587e-01 -1.2238468949317527e+00 -1.1419848993823998e+00 1.0576729792576072e+00 9.7776584705621367e-02 -5.1648715924882627e-01 1.3871460599236196e+00 2.2829005602202454e-02 1.9983162912056124e-01 2.0539712660722703e-01 -2.0770651591383923e-01 2.7809641020758502e-01 -1.3593551983938377e+00 6.3117584172339436e+00 -2.2324063676076937e+00 -3.5398482681425009e-01 5.8176674975409903e-01 2.7486978076829680e+00 1.8403704974508042e+00 -4.4356459179221919e-01 1.1572711043233992e+00 -1.2943157878940117e+00 9.7417116000394133e-01 8.5408507793242905e-01 -1.3754901711526503e-02 -7.7498532048496338e-01 -5.2110544624415300e-01 -2.4279765269766456e+00 
        </Neuron>
        <Neuron NSynapses="33">
          -1.5741141592417056e+00 1.7299381181675253e+00 3.5796676972325057e+00 -2.4149950461626926e+00 -8.6699909224109573e-01 -2.9710780906673242e+00 3.3980569733761073e-01 1.5808926938588028e+00 -3.9997010849758319e-01 1.9983917517502114e+00 -3.2734703687082076e+00 -1.3700977250340522e+00 -1.8806231531375162e+00 -4.6846101016770669e-02 -6.5882494449792028e-01 -1.6138170623866792e+00 1.2775626636168134e+00 -1.6129570567515086e-01 3.6290316188365170e+00 -1.2274885302134659e+00 2.0786838057120085e+00 1.6419009871806614e+00 6.2468263045458148e+00 -1.1570630504988479e+00 1.0541336103036989e+00 2.8217360652660589e-01 1.7172501148816852e+00 4.8747015443969310e-01 -1.4288874616494960e+00 -2.4211147371304680e+00 5.3497122759934457e-01 1.0229698904444298e+00 5.3462710872457864e+00 
        </Neuron>
        <Neuron NSynapses="33">
          7.3240960938828858e-01 3.2854107417491490e-01 3.0611818564663346e-02 1.7026580245819928e-01 2.2172281688631593e-01 -7.4731433633072053e-01 2.6894979857396251e-01 1.0934279346270308e+00 1.7722720479331926e+00 1.8630618403633923e+00 -5.3317372492421029e-02 -2.7264517634039254e-01 -1.2938163760206300e-01 -5.7462808519142039e-01 -6.3820206120934686e-01 1.6287300470664234e-01 -6.4009279871989277e-01 -1.0610871848472732e+00 -5.8102364284368907e-02 1.1031381041054182e+00 -7.9827370868174063e-01 -2.8710218939658705e-01 -2.4091391700145199e-02 -2.8392283403195984e-01 -2.4076290095711630e+00 1.8083448768584902e+00 1.7175963910018046e+00 5.9888490279533702e-01 1.8812004526004815e+00 -9.6284293009319322e-01 -1.0059135292316596e-03 2.0710504448246549e+00 -2.6783591428231296e-01 
        </Neuron>
        <Neuron NSynapses="33">
          5.7322761792484334e-01 8.1678355854882478e-02 3.1742779909579908e+00 2.7258236561253604e+00 -9.1197606824760399e-02 -4.8283719517276563e-01 2.8881908464876842e+00 2.0207356589390790e+00 -3.8882736335882340e-01 4.7117778070565297e-01 1.8803987777251871e-01 4.2793797288334884e-01 -2.1737776267193261e+00 -4.2267269486413622e-01 -1.6977882047209307e+00 1.5328960977238300e+00 -1.6306479665137781e+00 -8.7766037040942158e-02 -3.1635950757386104e+00 6.8829598003537895e-01 5.6240117786831667e-01 9.1666209982401248e-01 -1.3789977307945760e+00 -1.7363826470803492e+00 -6.1164401161731352e-01 8.0995089577159851e-01 1.7070398045187443e+00 1.1834420007702930e+00 1.3364486718363833e+00 3.3321008370481014e-01 1.6623095093041460e+00 5.3490476929135988e-01 -2.0656178548777673e+00 
        </Neuron>
        <Neuron NSynapses="33">
          1.4953856505784613e+00 7.2888440857457648e-01 1.0017350335996877e+00 -1.3365948775120423e-01 -1.4317498433063016e+00 1.9051898986977662e+00 2.5487836271634912e-01 -1.1534790806217088e+00 -9.9901710442218694e-01 -8.1144560600898730e-01 -2.3918441573095159e+00 -5.8249389253779804e-01 1.8083369355870720e+00 1.5355719697951065e+00 2.8851316708695456e+00 -1.4565353220434929e-01 -7.7185779640403818e-01 -1.2975874647836942e+00 1.2734835672028582e+00 4.0355589407555659e-01 1.8313734273127791e-01 -1.0765476156372471e+00 1.1145372455173086e+00 1.3831706790687055e+00 -7.1642802298447528e-01 1.4155120678945075e+00 -1.5328725016726136e-01 -3.0100575290487588e+00 -2.7326735814281782e+00 3.9433666768108011e-01 -9.5785228469453954e-01 1.6121593334810689e+00 -6.4333034853643711e-01 
        </Neuron>
        <Neuron NSynapses="33">
          -6.9672719031325292e-01 3.8633297415296536e-01 4.8222665950950594e+00 2.6319775688558766e+00 2.0054435513039870e+00 1.7403187069639396e+00 1.1470564398160764e-01 -1.1335828881105461e+00 -9.6405364674055671e-01 1.9459918985332949e+00 -1.3561339811266688e+00 -1.4347455882663809e+00 -4.6024184096491068e+00 6.9002496637775346e-01 2.1318890380546964e+00 -1.5148189361589754e+00 6.2619946448215069e-01 -8.8346827250311166e-01 6.7082534944459988e+00 -1.4725449546723972e+00 -3.6948392036043649e+00 -8.9250821849260198e-01 -2.8277976462229439e+00 -2.2958941681252048e-02 -1.5594956117937433e+00 6.1018579956126828e-01 1.6468454803774506e+00 -2.4936959077913792e+00 -1.2219805157865313e+00 1.0177392366847700e+00 4.3672753041422513e-01 -2.8607491953042490e+00 5.5568586331720597e+00 
        </Neuron>
        <Neuron NSynapses="33">
          -4.1530417610113618e-01 1.3449605189904725e+00 -1.7918599898198886e-01 -2.7532333220866838e-02 2.6041828064051775e+00 -3.6917352712269641e-01 9.5908116711208102e-01 1.3545290255530318e+00 -3.5316019902099777e-01 -9.1579023375009805e-01 1.6456900642967816e+00 2.4417699565046878e+00 -1.2794633403840017e+00 5.8261048727564757e-01 -1.1491790205192644e-01 -3.2961902785639796e+00 9.9371809608410966e-01 -2.0974717657828985e+00 1.1559689755680919e-01 -1.8728675608390928e+00 1.5895089886920941e-01 -6.0447735346403886e-01 2.4217926646745550e-01 -4.1799713509231651e-01 -4.3940897812612001e-01 -2.2026997298067466e+00 4.2805300263141532e-01 -4.6442265182821668e-01 2.4569513171242299e-01 6.3570223166290696e-01 1.2790787504086154e+00 -5.6231196053651422e-01 -2.4734703155018231e-01 
        </Neuron>
        <Neuron NSynapses="33">
          1.4322803901959866e+00 1.0826114637444673e+00 -8.1751207853514729e-01 1.3975118841484266e+00 1.0557944103766825e-01 5.3559281887863919e-01 2.5414280495582414e-01 6.8627226717420808e-01 -2.5416058364685172e+00 -1.6787047143791687e+00 2.7217633587566714e-01 1.9230208999516365e+00 3.4029239414626256e-01 8.6508279736279980e-01 1.7506138527779297e-01 1.9181119377507660e+00 -2.3812729048504422e+00 5.6010108710748319e-01 1.9602947516913125e+00 -1.6391499955194375e+00 -5.3343735849715523e-01 1.2776274453848695e+00 -2.1202921166391109e-02 1.3825242721926947e-01 -2.0913802064061557e+00 7.7914954960754257e-01 -1.1037050221415960e-01 -1.6735910088126120e+00 -2.4387171673060775e+00 -6.3267035386521797e-01 2.3162189397482202e+00 1.5262816053396870e+00 7.2750591487793359e-01 
        </Neuron>
        <Neuron NSynapses="33">
          1.9763044461453376e+00 1.0423193217800353e+00 -1.0109615647825567e+00 1.4630855813487587e+00 5.9136110310053358e-01 -1.4808774885409344e+00 -1.1920755205537070e+00 -1.3348604456223518e+00 -4.3405882133830170e-01 -1.4030942920796852e+00 1.3259293192161092e+00 4.8205817478871948e-01 1.6327559134890166e+00 1.4251475336546822e+00 -1.5253248456690149e+00 2.1226740097572478e+00 8.9886154493890469e-01 8.2280864054618086e-01 1.5538873079719182e+00 1.0964750056565000e+00 -2.8207998147212032e-01 1.9547106907859146e+00 1.4243747805499580e+00 -1.0607871139152034e+00 1.8352855614504976e-01 -6.4576684302201259e-01 5.2344405201171751e-01 -1.6144609327115691e+00 -3.8357103732072173e-01 -1.3902057340352354e+00 2.1933583149435307e+00 1.2897272991340809e+00 2.7682484413093840e+00 
        </Neuron>
        <Neuron NSynapses="33">
          -1.8567481468921914e+00 1.6427172694852583e+00 -2.9535267612273192e-01 7.2522427428436587e-01 6.8893680216696984e-01 1.3969352714057925e-01 -1.1603852726300932e+00 -9.1270146040074307e-01 4.5819602817472402e+00 1.7189568356175420e+00 2.7182487286002099e-02 1.2599243254946801e+00 -6.7280058735297454e-01 1.5692333510460962e-01 5.0738677013438194e-01 1.1871398180768322e+00 2.1884870546459152e+00 -1.4410293208299674e+00 -1.5943418841485422e+00 1.5144929967812240e+00 -1.2168354966986672e+00 -2.2329262064351378e+00 4.9033650492443964e-01 -4.9749308437057371e-01 1.8881433921452599e+00 7.5816050752696740e-01 -1.6135202189508167e+00 -3.8392175901375991e-01 1.3752398290683849e+00 -2.9638095552494048e-01 8.9702852001058586e-01 6.9474013250655692e-02 -9.3569717811580344e-01 
        </Neuron>
      </Layer>
      <Layer Index="1" NNeurons="34">
        <Neuron NSynapses="1">
          -1.2157003668818684e+00 
        </Neuron>
        <Neuron NSynapses="1">
          1.3461888634944978e+00 
        </Neuron>
        <Neuron NSynapses="1">
          -4.0706233181915534e+00 
        </Neuron>
        <Neuron NSynapses="1">
          2.6770011083554843e+00 
        </Neuron>
        <Neuron NSynapses="1">
          1.7008517480406762e+00 
        </Neuron>
        <Neuron NSynapses="1">
          1.8089979976683974e+00 
        </Neuron>
        <Neuron NSynapses="1">
          2.1833047134467485e+00 
        </Neuron>
        <Neuron NSynapses="1">
          1.1409316628912401e-01 
        </Neuron>
        <Neuron NSynapses="1">
          -2.6654450964062373e+00 
        </Neuron>
        <Neuron NSynapses="1">
          1.9762772745677655e+00 
        </Neuron>
        <Neuron NSynapses="1">
          -2.0618235247553045e+00 
        </Neuron>
        <Neuron NSynapses="1">
          -1.3495811677721303e+00 
        </Neuron>
        <Neuron NSynapses="1">
          1.7920720718477452e+00 
        </Neuron>
        <Neuron NSynapses="1">
          1.6013927863627926e+00 
        </Neuron>
        <Neuron NSynapses="1">
          2.5845716559174905e+00 
        </Neuron>
        <Neuron NSynapses="1">
          -2.3566718871227921e+00 
        </Neuron>
        <Neuron NSynapses="1">
          -1.8557702623462182e+00 
        </Neuron>
        <Neuron NSynapses="1">
          -2.9762136912678634e+00 
        </Neuron>
        <Neuron NSynapses="1">
          2.6160754908686989e+00 
        </Neuron>
        <Neuron NSynapses="1">
          -2.0321968775632744e+00 
        </Neuron>
        <Neuron NSynapses="1">
          -2.4203513446019702e+00 
        </Neuron>
        <Neuron NSynapses="1">
          1.7384589334109677e+00 
        </Neuron>
        <Neuron NSynapses="1">
          3.0500049267115261e+00 
        </Neuron>
        <Neuron NSynapses="1">
          2.2283269926640883e+00 
        </Neuron>
        <Neuron NSynapses="1">
          1.9790284767522983e+00 
        </Neuron>
        <Neuron NSynapses="1">
          1.7176441709137884e+00 
        </Neuron>
        <Neuron NSynapses="1">
          2.5091920450430836e+00 
        </Neuron>
        <Neuron NSynapses="1">
          -1.8370607476372829e+00 
        </Neuron>
        <Neuron NSynapses="1">
          -2.9327321331612768e+00 
        </Neuron>
        <Neuron NSynapses="1">
          -1.1864920033017083e+00 
        </Neuron>
        <Neuron NSynapses="1">
          7.0591387670586547e-01 
        </Neuron>
        <Neuron NSynapses="1">
          1.3685282882814982e+00 
        </Neuron>
        <Neuron NSynapses="1">
          -4.7686366176873181e+00 
        </Neuron>
        <Neuron NSynapses="1">
          1.8585876877345058e+00 
        </Neuron>
      </Layer>
      <Layer Index="2" NNeurons="1">
        <Neuron NSynapses="0"/>
      </Layer>
    </Layout>
  </Weights>
</MethodSetup>
